digraph Tree {
node [shape=box, style="filled, rounded", color="black", fontname=helvetica] ;
edge [fontname=helvetica] ;
0 [label="Recency (months) <= 6.5\ngini = 0.362\nsamples = 100.0%\nvalue = [0.763, 0.237]\nclass = 1", fillcolor="#eda877"] ;
1 [label="Monetary (c.c. blood) <= 1125.0\ngini = 0.465\nsamples = 49.5%\nvalue = [0.632, 0.368]\nclass = 1", fillcolor="#f4caac"] ;
0 -> 1 [labeldistance=2.5, labelangle=45, headlabel="True"] ;
2 [label="Time (months) <= 39.5\ngini = 0.364\nsamples = 23.7%\nvalue = [0.761, 0.239]\nclass = 1", fillcolor="#eda977"] ;
1 -> 2 ;
3 [label="Time (months) <= 36.5\ngini = 0.386\nsamples = 21.7%\nvalue = [0.738, 0.262]\nclass = 1", fillcolor="#eeae7f"] ;
2 -> 3 ;
4 [label="Time (months) <= 17.0\ngini = 0.381\nsamples = 21.6%\nvalue = [0.744, 0.256]\nclass = 1", fillcolor="#eeac7d"] ;
3 -> 4 ;
5 [label="(...)", fillcolor="#C0C0C0"] ;
4 -> 5 ;
46 [label="(...)", fillcolor="#C0C0C0"] ;
4 -> 46 ;
57 [label="gini = 0.0\nsamples = 0.2%\nvalue = [0.0, 1.0]\nclass = 0", fillcolor="#399de5"] ;
3 -> 57 ;
58 [label="gini = 0.0\nsamples = 2.0%\nvalue = [1.0, 0.0]\nclass = 1", fillcolor="#e58139"] ;
2 -> 58 ;
59 [label="Time (months) <= 49.5\ngini = 0.5\nsamples = 25.8%\nvalue = [0.513, 0.487]\nclass = 1", fillcolor="#fef9f5"] ;
1 -> 59 ;
60 [label="Time (months) <= 18.5\ngini = 0.474\nsamples = 16.9%\nvalue = [0.386, 0.614]\nclass = 0", fillcolor="#b6dbf5"] ;
59 -> 60 ;
61 [label="Time (months) <= 14.5\ngini = 0.278\nsamples = 3.0%\nvalue = [0.167, 0.833]\nclass = 0", fillcolor="#61b1ea"] ;
60 -> 61 ;
62 [label="(...)", fillcolor="#C0C0C0"] ;
61 -> 62 ;
67 [label="(...)", fillcolor="#C0C0C0"] ;
61 -> 67 ;
72 [label="Monetary (c.c. blood) <= 1625.0\ngini = 0.491\nsamples = 13.9%\nvalue = [0.434, 0.566]\nclass = 0", fillcolor="#d1e8f9"] ;
60 -> 72 ;
73 [label="(...)", fillcolor="#C0C0C0"] ;
72 -> 73 ;
114 [label="(...)", fillcolor="#C0C0C0"] ;
72 -> 114 ;
159 [label="Frequency (times) <= 12.5\ngini = 0.37\nsamples = 8.9%\nvalue = [0.755, 0.245]\nclass = 1", fillcolor="#edaa79"] ;
59 -> 159 ;
160 [label="Recency (months) <= 2.5\ngini = 0.165\nsamples = 5.5%\nvalue = [0.909, 0.091]\nclass = 1", fillcolor="#e88e4d"] ;
159 -> 160 ;
161 [label="(...)", fillcolor="#C0C0C0"] ;
160 -> 161 ;
172 [label="(...)", fillcolor="#C0C0C0"] ;
160 -> 172 ;
173 [label="Frequency (times) <= 28.5\ngini = 0.5\nsamples = 3.3%\nvalue = [0.5, 0.5]\nclass = 1", fillcolor="#ffffff"] ;
159 -> 173 ;
174 [label="(...)", fillcolor="#C0C0C0"] ;
173 -> 174 ;
189 [label="(...)", fillcolor="#C0C0C0"] ;
173 -> 189 ;
190 [label="Recency (months) <= 20.5\ngini = 0.195\nsamples = 50.5%\nvalue = [0.891, 0.109]\nclass = 1", fillcolor="#e89051"] ;
0 -> 190 [labeldistance=2.5, labelangle=-45, headlabel="False"] ;
191 [label="Recency (months) <= 19.0\ngini = 0.229\nsamples = 38.0%\nvalue = [0.868, 0.132]\nclass = 1", fillcolor="#e99457"] ;
190 -> 191 ;
192 [label="Monetary (c.c. blood) <= 375.0\ngini = 0.224\nsamples = 37.8%\nvalue = [0.872, 0.128]\nclass = 1", fillcolor="#e99456"] ;
191 -> 192 ;
193 [label="Time (months) <= 12.5\ngini = 0.095\nsamples = 6.7%\nvalue = [0.95, 0.05]\nclass = 1", fillcolor="#e68843"] ;
192 -> 193 ;
194 [label="(...)", fillcolor="#C0C0C0"] ;
193 -> 194 ;
197 [label="(...)", fillcolor="#C0C0C0"] ;
193 -> 197 ;
198 [label="Time (months) <= 24.0\ngini = 0.248\nsamples = 31.1%\nvalue = [0.855, 0.145]\nclass = 1", fillcolor="#e9965b"] ;
192 -> 198 ;
199 [label="(...)", fillcolor="#C0C0C0"] ;
198 -> 199 ;
244 [label="(...)", fillcolor="#C0C0C0"] ;
198 -> 244 ;
325 [label="gini = 0.0\nsamples = 0.2%\nvalue = [0.0, 1.0]\nclass = 0", fillcolor="#399de5"] ;
191 -> 325 ;
326 [label="Recency (months) <= 25.5\ngini = 0.077\nsamples = 12.5%\nvalue = [0.96, 0.04]\nclass = 1", fillcolor="#e68641"] ;
190 -> 326 ;
327 [label="Recency (months) <= 22.5\ngini = 0.056\nsamples = 11.7%\nvalue = [0.971, 0.029]\nclass = 1", fillcolor="#e6853f"] ;
326 -> 327 ;
328 [label="Recency (months) <= 21.5\ngini = 0.117\nsamples = 5.4%\nvalue = [0.938, 0.062]\nclass = 1", fillcolor="#e78946"] ;
327 -> 328 ;
329 [label="(...)", fillcolor="#C0C0C0"] ;
328 -> 329 ;
334 [label="(...)", fillcolor="#C0C0C0"] ;
328 -> 334 ;
335 [label="gini = 0.0\nsamples = 6.4%\nvalue = [1.0, 0.0]\nclass = 1", fillcolor="#e58139"] ;
327 -> 335 ;
336 [label="Recency (months) <= 32.0\ngini = 0.32\nsamples = 0.8%\nvalue = [0.8, 0.2]\nclass = 1", fillcolor="#eca06a"] ;
326 -> 336 ;
337 [label="gini = 0.0\nsamples = 0.2%\nvalue = [0.0, 1.0]\nclass = 0", fillcolor="#399de5"] ;
336 -> 337 ;
338 [label="gini = 0.0\nsamples = 0.7%\nvalue = [1.0, 0.0]\nclass = 1", fillcolor="#e58139"] ;
336 -> 338 ;
}
